<?xml version="1.0"?>
<opencv_storage>
<stage0>
  <maxWeakCount>8</maxWeakCount>
  <stageThreshold>-1.5493246316909790e+00</stageThreshold>
  <weakClassifiers>
    <_>
      <internalNodes>
        0 -1 108169 9.1442540287971497e-03</internalNodes>
      <leafValues>
        -7.7777779102325439e-01 8.2802549004554749e-02</leafValues></_>
    <_>
      <internalNodes>
        0 -1 87401 -7.2668306529521942e-03</internalNodes>
      <leafValues>
        2.8925970196723938e-01 -5.8330696821212769e-01</leafValues></_>
    <_>
      <internalNodes>
        0 -1 61109 -3.3300261944532394e-02</internalNodes>
      <leafValues>
        6.4594662189483643e-01 -2.8766834735870361e-01</leafValues></_>
    <_>
      <internalNodes>
        0 -1 2 -4.4603741844184697e-04</internalNodes>
      <leafValues>
        -7.4745410680770874e-01 2.3270435631275177e-01</leafValues></_>
    <_>
      <internalNodes>
        0 -1 62682 6.1496729031205177e-03</internalNodes>
      <leafValues>
        -3.4259152412414551e-01 4.3670195341110229e-01</leafValues></_>
    <_>
      <internalNodes>
        0 -1 13407 -5.5787695600884035e-05</internalNodes>
      <leafValues>
        -5.0684970617294312e-01 3.1437319517135620e-01</leafValues></_>
    <_>
      <internalNodes>
        0 -1 143021 -2.7416352182626724e-02</internalNodes>
      <leafValues>
        4.4617751240730286e-01 -4.2273950576782227e-01</leafValues></_>
    <_>
      <internalNodes>
        0 -1 102710 1.0642781853675842e-03</internalNodes>
      <leafValues>
        -2.8485387563705444e-01 5.1854693889617920e-01</leafValues></_></weakClassifiers></stage0>
</opencv_storage>
