<?xml version="1.0"?>
<opencv_storage>
<stage1>
  <maxWeakCount>10</maxWeakCount>
  <stageThreshold>-1.6506376266479492e+00</stageThreshold>
  <weakClassifiers>
    <_>
      <internalNodes>
        0 -1 2641 -4.2075000703334808e-02</internalNodes>
      <leafValues>
        6.3636362552642822e-01 -6.9645392894744873e-01</leafValues></_>
    <_>
      <internalNodes>
        0 -1 120317 -2.6730649173259735e-02</internalNodes>
      <leafValues>
        3.0929303169250488e-01 -4.1210043430328369e-01</leafValues></_>
    <_>
      <internalNodes>
        0 -1 89826 -4.5845715794712305e-04</internalNodes>
      <leafValues>
        -6.5668851137161255e-01 1.9588848948478699e-01</leafValues></_>
    <_>
      <internalNodes>
        0 -1 118320 4.4942772947251797e-03</internalNodes>
      <leafValues>
        -2.5873428583145142e-01 3.7751236557960510e-01</leafValues></_>
    <_>
      <internalNodes>
        0 -1 9444 -5.7925550208892673e-05</internalNodes>
      <leafValues>
        -3.8576176762580872e-01 2.7726504206657410e-01</leafValues></_>
    <_>
      <internalNodes>
        0 -1 38773 3.6052260547876358e-02</internalNodes>
      <leafValues>
        -2.1196077764034271e-01 5.2225822210311890e-01</leafValues></_>
    <_>
      <internalNodes>
        0 -1 162248 -5.7340692728757858e-04</internalNodes>
      <leafValues>
        -5.3246176242828369e-01 1.9926729798316956e-01</leafValues></_>
    <_>
      <internalNodes>
        0 -1 74270 1.1696167290210724e-02</internalNodes>
      <leafValues>
        -2.6175943017005920e-01 4.1102713346481323e-01</leafValues></_>
    <_>
      <internalNodes>
        0 -1 77854 -9.8778568208217621e-03</internalNodes>
      <leafValues>
        6.4933311939239502e-01 -1.4856767654418945e-01</leafValues></_>
    <_>
      <internalNodes>
        0 -1 101705 4.1942705865949392e-04</internalNodes>
      <leafValues>
        -4.0467405319213867e-01 3.1052958965301514e-01</leafValues></_></weakClassifiers></stage1>
</opencv_storage>
